<?xml version="1.0" encoding="UTF-8"?>
<BIF VERSION="0.3"  xmlns="http://www.cs.ubc.ca/labs/lci/fopi/ve/XMLBIFv0_3"
	xmlns:xsi="http://www.w3.org/2001/XMLSchema-instance"
	xsi:schemaLocation="http://www.cs.ubc.ca/labs/lci/fopi/ve/XMLBIFv0_3 http://www.cs.ubc.ca/labs/lci/fopi/ve/XMLBIFv0_3/XMLBIFv0_3.xsd">
<NETWORK>
<NAME>Untitled</NAME>
<PROPERTY>detailed = </PROPERTY>
<PROPERTY>short = </PROPERTY>

<VARIABLE TYPE="nature">
	<NAME>GiantShip</NAME>
	<OUTCOME>T</OUTCOME>
	<OUTCOME>F</OUTCOME>
	<PROPERTY>position = (7381.91064453125, 5049.99560546875)</PROPERTY>
</VARIABLE>

<VARIABLE TYPE="nature">
	<NAME>BadWeather</NAME>
	<OUTCOME>T</OUTCOME>
	<OUTCOME>F</OUTCOME>
	<PROPERTY>position = (7603.455078125, 5048.986328125)</PROPERTY>
</VARIABLE>

<VARIABLE TYPE="nature">
	<NAME>BadWeatherDetected</NAME>
	<OUTCOME>T</OUTCOME>
	<OUTCOME>F</OUTCOME>
	<PROPERTY>position = (7604.52197265625, 5136.408203125)</PROPERTY>
</VARIABLE>

<VARIABLE TYPE="nature">
	<NAME>LowTide</NAME>
	<OUTCOME>T</OUTCOME>
	<OUTCOME>F</OUTCOME>
	<PROPERTY>position = (7888.875, 5050.91015625)</PROPERTY>
</VARIABLE>

<VARIABLE TYPE="nature">
	<NAME>BusyTraffic</NAME>
	<OUTCOME>T</OUTCOME>
	<OUTCOME>F</OUTCOME>
	<PROPERTY>position = (7234.87841796875, 5170.68017578125)</PROPERTY>
</VARIABLE>

<VARIABLE TYPE="nature">
	<NAME>ShoppingSeason</NAME>
	<OUTCOME>T</OUTCOME>
	<OUTCOME>F</OUTCOME>
	<PROPERTY>position = (7135.5234375, 5047.015625)</PROPERTY>
</VARIABLE>

<VARIABLE TYPE="nature">
	<NAME>HighTrafficDetected</NAME>
	<OUTCOME>T</OUTCOME>
	<OUTCOME>F</OUTCOME>
	<PROPERTY>position = (7128.125, 5278.490234375)</PROPERTY>
</VARIABLE>

<VARIABLE TYPE="nature">
	<NAME>ShippingHalt</NAME>
	<OUTCOME>T</OUTCOME>
	<OUTCOME>F</OUTCOME>
	<PROPERTY>position = (7443.10009765625, 5398.984375)</PROPERTY>
</VARIABLE>

<VARIABLE TYPE="nature">
	<NAME>Alert</NAME>
	<OUTCOME>T</OUTCOME>
	<OUTCOME>F</OUTCOME>
	<PROPERTY>position = (7675.04541015625, 5398.0537109375)</PROPERTY>
</VARIABLE>

<DEFINITION>
	<FOR>GiantShip</FOR>
	<TABLE>0.8 0.2</TABLE>
</DEFINITION>

<DEFINITION>
	<FOR>BadWeather</FOR>
	<TABLE>0.1 0.9</TABLE>
</DEFINITION>

<DEFINITION>
	<FOR>BadWeatherDetected</FOR>
	<GIVEN>BadWeather</GIVEN>
	<TABLE>0.99 0.01 0.01 0.99</TABLE>
</DEFINITION>

<DEFINITION>
	<FOR>LowTide</FOR>
	<TABLE>0.25 0.75</TABLE>
</DEFINITION>

<DEFINITION>
	<FOR>BusyTraffic</FOR>
	<GIVEN>GiantShip</GIVEN>
	<GIVEN>ShoppingSeason</GIVEN>
	<TABLE>0.2 0.8 0.15 0.85 0.125 0.875 0.04 0.96</TABLE>
</DEFINITION>

<DEFINITION>
	<FOR>ShoppingSeason</FOR>
	<TABLE>0.2 0.8</TABLE>
</DEFINITION>

<DEFINITION>
	<FOR>HighTrafficDetected</FOR>
	<GIVEN>BusyTraffic</GIVEN>
	<TABLE>0.9 0.1 0.1 0.9</TABLE>
</DEFINITION>

<DEFINITION>
	<FOR>ShippingHalt</FOR>
	<GIVEN>GiantShip</GIVEN>
	<GIVEN>BadWeatherDetected</GIVEN>
	<GIVEN>LowTide</GIVEN>
	<GIVEN>BusyTraffic</GIVEN>
	<TABLE>0.04 0.96 0.03 0.97 0.03 0.97 0.02 0.98 0.03 0.97 0.02 0.98 0.02 0.98 0.01 0.99 0.03 0.97 0.02 0.98 0.02 0.98 0.01 0.99 0.02 0.98 0.01 0.99 0.01 0.99 0.01 0.99</TABLE>
</DEFINITION>

<DEFINITION>
	<FOR>Alert</FOR>
	<GIVEN>GiantShip</GIVEN>
	<GIVEN>BadWeatherDetected</GIVEN>
	<GIVEN>LowTide</GIVEN>
	<GIVEN>BusyTraffic</GIVEN>
	<TABLE>1.0 0.0 1.0 0.0 1.0 0.0 0.0 1.0 1.0 0.0 0.0 1.0 0.0 1.0 0.0 1.0 1.0 0.0 0.0 1.0 0.0 1.0 0.0 1.0 0.0 1.0 0.0 1.0 0.0 1.0 0.0 1.0</TABLE>
</DEFINITION>
</NETWORK>
</BIF>
