<?xml version="1.0" encoding="UTF-8"?>
<BIF VERSION="0.3"  xmlns="http://www.cs.ubc.ca/labs/lci/fopi/ve/XMLBIFv0_3"
	xmlns:xsi="http://www.w3.org/2001/XMLSchema-instance"
	xsi:schemaLocation="http://www.cs.ubc.ca/labs/lci/fopi/ve/XMLBIFv0_3 http://www.cs.ubc.ca/labs/lci/fopi/ve/XMLBIFv0_3/XMLBIFv0_3.xsd">
<NETWORK>
<NAME>Untitled</NAME>
<PROPERTY>detailed = </PROPERTY>
<PROPERTY>short = </PROPERTY>

<VARIABLE TYPE="nature">
	<NAME>GiantShip</NAME>
	<OUTCOME>T</OUTCOME>
	<OUTCOME>F</OUTCOME>
	<PROPERTY>position = (7400.68896484375, 5082.947265625)</PROPERTY>
</VARIABLE>

<VARIABLE TYPE="nature">
	<NAME>BadWeather</NAME>
	<OUTCOME>T</OUTCOME>
	<OUTCOME>F</OUTCOME>
	<PROPERTY>position = (7580.03662109375, 5082.130859375)</PROPERTY>
</VARIABLE>

<VARIABLE TYPE="nature">
	<NAME>BadWeatherDetected</NAME>
	<OUTCOME>T</OUTCOME>
	<OUTCOME>F</OUTCOME>
	<PROPERTY>position = (7580.8994140625, 5152.9013671875)</PROPERTY>
</VARIABLE>

<VARIABLE TYPE="nature">
	<NAME>LowTide</NAME>
	<OUTCOME>T</OUTCOME>
	<OUTCOME>F</OUTCOME>
	<PROPERTY>position = (7811.09228515625, 5083.6875)</PROPERTY>
</VARIABLE>

<VARIABLE TYPE="nature">
	<NAME>BusyTraffic</NAME>
	<OUTCOME>T</OUTCOME>
	<OUTCOME>F</OUTCOME>
	<PROPERTY>position = (7281.66162109375, 5180.64501953125)</PROPERTY>
</VARIABLE>

<VARIABLE TYPE="nature">
	<NAME>ShoppingSeason</NAME>
	<OUTCOME>T</OUTCOME>
	<OUTCOME>F</OUTCOME>
	<PROPERTY>position = (7201.23046875, 5080.53466796875)</PROPERTY>
</VARIABLE>

<VARIABLE TYPE="nature">
	<NAME>HighTrafficDetected</NAME>
	<OUTCOME>T</OUTCOME>
	<OUTCOME>F</OUTCOME>
	<PROPERTY>position = (7195.2412109375, 5267.9208984375)</PROPERTY>
</VARIABLE>

<VARIABLE TYPE="nature">
	<NAME>ShippingHalt</NAME>
	<OUTCOME>T</OUTCOME>
	<OUTCOME>F</OUTCOME>
	<PROPERTY>position = (7450.2236328125, 5365.46484375)</PROPERTY>
</VARIABLE>

<VARIABLE TYPE="nature">
	<NAME>Alert</NAME>
	<OUTCOME>T</OUTCOME>
	<OUTCOME>F</OUTCOME>
	<PROPERTY>position = (7637.99072265625, 5364.71142578125)</PROPERTY>
</VARIABLE>

<VARIABLE TYPE="nature">
	<NAME>KalangoInvaded</NAME>
	<OUTCOME>T</OUTCOME>
	<OUTCOME>F</OUTCOME>
	<PROPERTY>position = (7085.0439453125, 5155.80859375)</PROPERTY>
</VARIABLE>

<VARIABLE TYPE="nature">
	<NAME>ExhaustedCaptain</NAME>
	<OUTCOME>T</OUTCOME>
	<OUTCOME>F</OUTCOME>
	<PROPERTY>position = (7892.95654296875, 5166.33251953125)</PROPERTY>
</VARIABLE>

<DEFINITION>
	<FOR>GiantShip</FOR>
	<TABLE>0.8 0.2</TABLE>
</DEFINITION>

<DEFINITION>
	<FOR>BadWeather</FOR>
	<TABLE>0.1 0.9</TABLE>
</DEFINITION>

<DEFINITION>
	<FOR>BadWeatherDetected</FOR>
	<GIVEN>BadWeather</GIVEN>
	<TABLE>0.99 0.01 0.01 0.99</TABLE>
</DEFINITION>

<DEFINITION>
	<FOR>LowTide</FOR>
	<TABLE>0.25 0.75</TABLE>
</DEFINITION>

<DEFINITION>
	<FOR>BusyTraffic</FOR>
	<GIVEN>ShoppingSeason</GIVEN>
	<GIVEN>KalangoInvaded</GIVEN>
	<TABLE>0.1 0.9 0.2 0.8 0.075 0.925 0.15 0.85</TABLE>
</DEFINITION>

<DEFINITION>
	<FOR>ShoppingSeason</FOR>
	<TABLE>0.2 0.8</TABLE>
</DEFINITION>

<DEFINITION>
	<FOR>HighTrafficDetected</FOR>
	<GIVEN>BusyTraffic</GIVEN>
	<TABLE>0.9 0.1 0.1 0.9</TABLE>
</DEFINITION>

<DEFINITION>
	<FOR>ShippingHalt</FOR>
	<GIVEN>GiantShip</GIVEN>
	<GIVEN>BadWeatherDetected</GIVEN>
	<GIVEN>LowTide</GIVEN>
	<GIVEN>BusyTraffic</GIVEN>
	<GIVEN>ExhaustedCaptain</GIVEN>
	<TABLE>0.04 0.96 0.04 0.96 0.03 0.97 0.03 0.97 0.03 0.97 0.03 0.97 0.02 0.98 0.02 0.98 0.03 0.97 0.03 0.97 0.02 0.98 0.02 0.98 0.02 0.98 0.02 0.98 0.01 0.99 0.01 0.99 0.03 0.97 0.03 0.97 0.02 0.98 0.02 0.98 0.02 0.98 0.02 0.98 0.01 0.99 0.01 0.99 0.02 0.98 0.02 0.98 0.01 0.99 0.01 0.99 0.01 0.99 0.01 0.99 0.01 0.99 0.01 0.99</TABLE>
</DEFINITION>

<DEFINITION>
	<FOR>Alert</FOR>
	<GIVEN>GiantShip</GIVEN>
	<GIVEN>BadWeatherDetected</GIVEN>
	<GIVEN>LowTide</GIVEN>
	<GIVEN>BusyTraffic</GIVEN>
	<GIVEN>ExhaustedCaptain</GIVEN>
	<TABLE>1.0 0.0 1.0 0.0 1.0 0.0 1.0 0.0 1.0 0.0 1.0 0.0 0.0 1.0 0.0 1.0 1.0 0.0 1.0 0.0 0.0 1.0 0.0 1.0 0.0 1.0 0.0 1.0 0.0 1.0 0.0 1.0 1.0 0.0 1.0 0.0 0.0 1.0 0.0 1.0 0.0 1.0 0.0 1.0 0.0 1.0 0.0 1.0 0.0 1.0 0.0 1.0 0.0 1.0 0.0 1.0 0.0 1.0 0.0 1.0 0.0 1.0 0.0 1.0</TABLE>
</DEFINITION>

<DEFINITION>
	<FOR>KalangoInvaded</FOR>
	<TABLE>0.01 0.99</TABLE>
</DEFINITION>

<DEFINITION>
	<FOR>ExhaustedCaptain</FOR>
	<TABLE>0.6 0.4</TABLE>
</DEFINITION>
</NETWORK>
</BIF>
